!CSV A.01.01
!Keysight Technologies,N5247A,US51370532,A.10.64.03
!Date: Wednesday, August 22, 2018 18:57:04
!Source: Standard

BEGIN CH1_DATA
Freq(Hz),NF(DB),NF(DEG),S21(DB),S21(DEG),S11(DB),S11(DEG),T-Eff(DB),T-Eff(DEG)
1000000000,6.1637921,0,6.7752948,170.47726,0.11181088,-12.189207,908.88416,0
1100000000,5.8900828,0,6.6880102,169.25864,0.029696077,-13.854664,835.65747,0
1200000000,5.829535,0,6.6804857,168.37367,0.037002616,-15.163295,820.07288,0
1300000000,5.8753819,0,6.7191691,167.61211,0.1100692,-16.110401,831.85364,0
1400000000,5.736093,0,6.7108917,166.73373,0.12357312,-17.173784,796.44385,0
1500000000,5.9801774,0,6.6879554,165.7567,0.10385977,-18.465939,859.25317,0
1600000000,5.7223568,0,6.6968789,164.75185,0.12834567,-19.756958,793.013,0
1700000000,6.0738978,0,6.6780925,163.74718,0.13324915,-21.038465,884.32355,0
1800000000,5.8928952,0,6.6064072,162.71193,0.07608518,-22.406721,836.38672,0
1900000000,5.7954049,0,6.5699692,161.78099,0.053688686,-23.68132,811.38324,0
2000000000,6.0698299,0,6.5817733,160.92461,0.094895661,-24.788937,883.22412,0
2100000000,5.8848934,0,6.5593915,159.92793,0.08817707,-25.994976,834.31329,0
2200000000,5.8167624,0,6.4778647,158.89304,0.018403294,-27.399023,816.81299,0
2300000000,6.1515918,0,6.44173,157.9599,-0.0058539212,-28.712282,905.52094,0
2400000000,7.5162721,0,6.4350452,157.1171,0.028918892,-29.822567,1346.9114,0
2500000000,5.4222574,0,6.4090428,156.19925,0.035443425,-30.936646,720.70343,0
2600000000,6.1939702,0,6.3729253,155.29146,0.017757,-32.12875,917.24384,0
2700000000,5.5355196,0,6.3646584,154.35588,0.04075766,-33.34613,747.40887,0
2800000000,5.3475513,0,6.3446298,153.35829,0.059378393,-34.545998,703.46625,0
2900000000,5.9757018,0,6.275331,152.44426,0.0064569507,-35.746086,858.06952,0
3000000000,5.3376436,0,6.1870766,151.61263,-0.068090849,-36.948334,701.20245,0
3100000000,5.5017443,0,6.1341715,150.77153,-0.092219733,-38.097748,739.37213,0
3200000000,5.6580572,0,6.1064463,149.9135,-0.093762524,-39.231293,777.09656,0
3300000000,4.8517647,0,6.033093,148.99583,-0.12422454,-40.372227,596.28723,0
3400000000,5.7882752,0,5.9897165,148.16708,-0.14887144,-41.538265,809.57672,0
3500000000,5.5638752,0,5.9560151,147.34183,-0.14483984,-42.668274,754.20447,0
3600000000,4.9868913,0,5.9130559,146.47977,-0.15315142,-43.748569,624.29663,0
3700000000,5.9539971,0,5.8501453,145.66818,-0.18025802,-44.809212,852.34613,0
3800000000,5.8382139,0,5.816906,144.84857,-0.18889065,-45.953323,822.29346,0
3900000000,4.9188967,0,5.7825727,143.94203,-0.17127544,-47.116444,610.09357,0
4000000000,6.1562309,0,5.7437735,143.03949,-0.17527053,-48.204304,906.79871,0
4100000000,5.3563671,0,5.6692505,142.27846,-0.21762984,-49.243896,705.48492,0
4200000000,6.9517379,0,5.6321588,141.52171,-0.24588451,-50.232029,1147.3806,0
4300000000,6.3127155,0,5.5764985,140.75902,-0.26018831,-51.261189,950.70789,0
4400000000,6.0704145,0,5.5182033,139.97186,-0.27160573,-52.313297,883.38196,0
4500000000,5.6056595,0,5.464294,139.12476,-0.29209787,-53.407387,764.29932,0
4600000000,7.5225453,0,5.4313836,138.31921,-0.29556707,-54.461536,1349.2777,0
4700000000,4.5045552,0,5.3825626,137.47504,-0.29213008,-55.529552,528.18878,0
4800000000,6.6752133,0,5.3274617,136.71935,-0.30507171,-56.447578,1058.7123,0
4900000000,6.0227137,0,5.2652745,135.97513,-0.33090478,-57.432541,870.56476,0
5000000000,5.5229301,0,5.203352,135.22505,-0.35445541,-58.470608,744.40601,0
5100000000,6.7182937,0,5.1448975,134.42514,-0.36932194,-59.488461,1072.1576,0
5200000000,5.7054415,0,5.0703387,133.6469,-0.39107221,-60.46751,788.80304,0
5300000000,5.6910553,0,5.0174584,132.9626,-0.42326427,-61.391605,785.23529,0
5400000000,6.9355493,0,4.9630628,132.32118,-0.44114986,-62.268402,1142.0327,0
5500000000,5.1401553,0,4.8866901,131.59186,-0.44999218,-63.177036,657.13855,0
5600000000,6.1663613,0,4.8281398,130.88614,-0.48272744,-64.091301,909.59357,0
5700000000,6.7468114,0,4.7639041,130.2589,-0.52161235,-65.014542,1081.1317,0
5800000000,4.8933716,0,4.6429644,129.66751,-0.5350228,-65.91188,604.81891,0
5900000000,7.6067977,0,4.5397596,128.9454,-0.56064737,-66.650772,1381.3899,0
6000000000,4.9543581,0,4.5659919,128.19876,-0.55692887,-67.673141,617.47327,0
6100000000,8.0008879,0,4.5361962,127.47689,-0.54922837,-68.842239,1540.1503,0
6200000000,5.5062728,0,4.442699,126.79884,-0.61400169,-69.537758,740.44611,0
6300000000,7.1667008,0,4.3908048,126.18422,-0.63177037,-70.275574,1220.3169,0
6400000000,6.4182119,0,4.3287168,125.61773,-0.65527517,-71.105293,981.21564,0
6500000000,5.1931915,0,4.2504501,125.03522,-0.67614669,-71.937202,668.776,0
6600000000,7.3168898,0,4.2044921,124.3638,-0.67940086,-72.76889,1273.4608,0
6700000000,5.1442676,0,4.1363392,123.67873,-0.69097632,-73.59964,658.03589,0
6800000000,6.5070295,0,4.0760007,123.10942,-0.7219668,-74.394829,1007.4809,0
6900000000,6.5382495,0,4.014739,122.52296,-0.73444682,-75.21714,1016.8417,0
7000000000,5.3630266,0,3.939846,121.82283,-0.74334925,-76.036102,707.01263,0
7100000000,6.9676347,0,3.8895626,121.18869,-0.76767355,-76.795097,1152.6517,0
7200000000,6.3277559,0,3.823504,120.72743,-0.79768264,-77.528831,955.01208,0
7300000000,5.2913594,0,3.7445602,120.16591,-0.80938816,-78.296524,690.69495,0
7400000000,7.2151399,0,3.6967709,119.45351,-0.81186777,-79.100479,1237.2566,0
7500000000,6.230648,0,3.638144,118.82371,-0.82393193,-79.907883,927.48279,0
7600000000,6.1590142,0,3.5678058,118.29336,-0.84775347,-80.641182,907.56586,0
7700000000,6.7900615,0,3.5088425,117.6853,-0.85698956,-81.407227,1094.8545,0
7800000000,5.8438988,0,3.440989,117.08002,-0.87451524,-82.105431,823.75043,0
7900000000,6.8308392,0,3.3814507,116.56826,-0.8983348,-82.784966,1107.9187,0
8000000000,6.2770019,0,3.3216488,116.09499,-0.91065454,-83.486008,940.54688,0
8100000000,5.2214627,0,3.2484257,115.43423,-0.91676813,-84.254868,675.03766,0
8200000000,7.7886233,0,3.1992106,114.79167,-0.93252385,-84.980614,1452.8513,0
8300000000,5.8529024,0,3.133945,114.36353,-0.96061885,-85.609497,826.06183,0
8400000000,6.2529268,0,3.0603402,113.94769,-0.98519713,-86.221695,933.74432,0
8500000000,6.9808159,0,3.0114527,113.35796,-0.98949397,-86.906357,1157.0369,0
8600000000,5.5918655,0,2.9461575,112.82021,-1.0070981,-87.599007,760.95605,0
8700000000,5.2363143,0,2.8783584,112.35139,-1.0226406,-88.257973,678.34351,0
8800000000,6.38166,0,2.8119316,111.78116,-1.032773,-88.930664,970.56134,0
8900000000,5.7967501,0,2.7403691,111.22117,-1.0445938,-89.561256,811.72449,0
9000000000,5.6912117,0,2.6881239,110.77774,-1.0694904,-90.141685,785.27405,0
9100000000,5.8282685,0,2.63008,110.39861,-1.0868417,-90.708527,819.74921,0
9200000000,5.8677201,0,2.55809,109.87905,-1.0964683,-91.334633,829.8761,0
9300000000,6.3191462,0,2.5086515,109.26048,-1.1047604,-92.046646,952.54633,0
9400000000,5.2742181,0,2.4430032,108.85418,-1.1175777,-92.625755,686.83185,0
9500000000,7.2901597,0,2.3480592,108.53697,-1.2055066,-93.302101,1263.8676,0
9600000000,7.155055,0,2.3146894,107.94098,-1.157946,-93.741615,1216.2723,0
9700000000,6.8388324,0,2.2597587,107.47498,-1.1653347,-94.326973,1110.4939,0
9800000000,6.8844881,0,2.1924713,107.03691,-1.184754,-94.922798,1125.2944,0
9900000000,7.1932817,0,2.1304159,106.51843,-1.1912463,-95.559105,1229.589,0
10000000000,6.1118627,0,2.0568635,105.95668,-1.2011958,-96.17202,894.63422,0
10100000000,7.4195805,0,1.992223,105.44894,-1.2401997,-96.833702,1310.87,0
10200000000,7.3646665,0,1.9535831,105.1087,-1.2367737,-97.213135,1290.7552,0
10300000000,6.526577,0,1.8854672,104.72599,-1.2487519,-97.713982,1013.3339,0
10400000000,8.5771189,0,1.8302107,104.21734,-1.2585992,-98.270096,1799.825,0
10500000000,6.4152975,0,1.7761116,103.7398,-1.2645416,-98.88456,980.36279,0
10600000000,8.2556343,0,1.6964135,103.36716,-1.2959715,-99.356575,1650.7135,0
10700000000,8.7075005,0,1.6384468,102.90903,-1.3143846,-99.882744,1863.5155,0
10800000000,5.4423165,0,1.5780276,102.48824,-1.3179413,-100.39413,725.38245,0
10900000000,8.6823397,0,1.5281008,102.14463,-1.3321997,-100.82337,1851.0752,0
11000000000,8.2073975,0,1.4785863,101.77085,-1.3331442,-101.29681,1629.2776,0
11100000000,5.9989934,0,1.3975533,101.30972,-1.3498155,-101.8246,864.24323,0
11200000000,9.3956194,0,1.3393755,100.82171,-1.3711247,-102.34411,2233.248,0
11300000000,7.1382995,0,1.2922126,100.47787,-1.3783031,-102.79997,1210.4723,0
11400000000,7.2830734,0,1.2284496,100.15862,-1.3888613,-103.21965,1261.3341,0
11500000000,10.166411,0,1.1770658,99.678909,-1.3934873,-103.74721,2723.2773,0
11600000000,5.8159771,0,1.1327161,99.329872,-1.3844165,-104.17464,816.61292,0
11700000000,9.2723637,0,1.0879334,98.900787,-1.361053,-104.71639,2162.6433,0
11800000000,8.9732227,0,1.0024787,98.497505,-1.4250315,-105.14309,1999.3923,0
11900000000,5.7949328,0,0.93042034,98.156235,-1.4327656,-105.56502,811.26355,0
12000000000,10.060947,0,0.88134867,97.790405,-1.447638,-105.88705,2650.9849,0
12100000000,7.2603726,0,0.84540999,97.618401,-1.4747075,-106.22309,1253.2465,0
12200000000,7.0174346,0,0.78152949,97.014275,-1.4522014,-106.8469,1169.2896,0
12300000000,10.557448,0,0.72191828,96.582603,-1.4748468,-107.25253,3007.1809,0
12400000000,6.7433691,0,0.67294139,96.178986,-1.4796245,-107.82455,1080.0453,0
12500000000,6.2699976,0,0.5479098,95.927078,-1.5146934,-108.21065,938.5639,0
12600000000,10.697346,0,0.5534358,95.470253,-1.4896919,-108.4456,3115.1211,0
12700000000,7.2177,0,0.51623672,95.062386,-1.4864709,-108.99538,1238.157,0
12800000000,8.9193115,0,0.42468801,94.713402,-1.5286518,-109.33233,1971.1488,0
12900000000,10.276819,0,0.39499745,94.348038,-1.5355624,-109.70182,2800.864,0
13000000000,5.7538624,0,0.32599244,94.053314,-1.5434661,-110.20816,800.89825,0
13100000000,9.7339735,0,0.25145528,93.90966,-1.6060903,-110.16382,2437.6921,0
13200000000,7.8881068,0,0.23087139,93.207283,-1.5381885,-110.88544,1493.2355,0
13300000000,6.8560467,0,0.22835964,93.556252,-1.5453955,-110.14774,1116.0562,0
13400000000,9.4369373,0,0.13303943,92.361343,-1.5942001,-112.00464,2257.3684,0
13500000000,8.55371,0,0.052497886,92.387283,-1.6446539,-112.74292,1788.5906,0
13600000000,6.0971956,0,-0.18051429,96.171844,-1.8333597,-107.85665,890.6402,0
13700000000,11.329333,0,-0.11867266,92.132256,-1.8364677,-112.27618,3648.5046,0
13800000000,6.4978333,0,0.12019265,90.864792,-1.4440449,-115.15633,1004.7363,0
13900000000,7.3966479,0,-0.09575215,90.645424,-1.8288075,-114.46939,1302.4388,0
14000000000,10.332803,0,-0.23332264,90.723267,-1.6940143,-113.83539,2840.9651,0
14100000000,7.0267053,0,-0.22342499,90.448952,-1.6073195,-114.2169,1172.408,0
14200000000,10.15415,0,-0.30665952,90.225594,-1.62448,-114.34593,2714.7822,0
14300000000,11.254848,0,-0.3188355,89.922539,-1.6550962,-114.42614,3581.5313,0
14400000000,6.3643003,0,-0.3122426,89.447685,-1.5141677,-115.42913,965.53265,0
14500000000,12.100815,0,-0.39057428,89.041115,-1.5308421,-116.36152,4414.1318,0
14600000000,8.4936447,0,-0.52866358,88.906624,-1.6927085,-116.01649,1760.0406,0
14700000000,9.13346,0,-0.54815984,88.519257,-1.6282586,-116.35075,2085.4399,0
14800000000,11.37781,0,-0.5923174,88.074135,-1.636367,-116.80913,3692.7129,0
14900000000,7.6104846,0,-0.63297939,87.695946,-1.6342911,-117.04478,1382.8093,0
15000000000,10.112817,0,-0.69794869,87.320732,-1.6640918,-117.48145,2686.3206,0
15100000000,11.692503,0,-0.76899755,87.123398,-1.7049061,-117.64419,3992.0159,0
15200000000,6.9562416,0,-0.81143886,86.855972,-1.68231,-117.89534,1148.8721,0
15300000000,11.16198,0,-0.87605947,86.529312,-1.7108203,-118.0531,3499.6223,0
15400000000,9.9981108,0,-0.87385601,86.115059,-1.6937928,-118.40748,2608.7388,0
15500000000,7.9765472,0,-0.92748815,85.772728,-1.656242,-119.14571,1529.9218,0
15600000000,11.234913,0,-1.0026616,85.423073,-1.6972201,-119.26225,3563.8008,0
15700000000,8.0544891,0,-1.0487211,85.099098,-1.7080226,-119.64098,1562.8784,0
15800000000,9.0171032,0,-1.1332295,84.920219,-1.747015,-119.80859,2022.6415,0
15900000000,10.690989,0,-1.1716843,84.593613,-1.7623574,-120.08092,3110.1414,0
16000000000,7.5105138,0,-1.195945,84.314781,-1.7372192,-120.43815,1344.7426,0
16100000000,9.6345825,0,-1.2707767,84.066689,-1.7678421,-120.58559,2375.9763,0
16200000000,9.9685307,0,-1.2863826,83.691307,-1.7585735,-121.01202,2589.0623,0
16300000000,7.4306808,0,-1.3459656,83.867081,-1.7633475,-121.06113,1314.9669,0
16400000000,11.678855,0,-1.4147332,83.332748,-1.807286,-121.27946,3978.5806,0
16500000000,9.898406,0,-1.4054501,83.113747,-1.8054912,-121.56454,2542.9482,0
16600000000,8.990243,0,-1.4586639,83.264,-1.6929798,-121.23485,2008.3827,0
16700000000,10.129952,0,-1.5300215,82.506859,-1.7021631,-122.47998,2698.0869,0
16800000000,8.6221867,0,-1.5495684,81.997963,-1.7703001,-122.65687,1821.6243,0
16900000000,9.5879583,0,-1.6316177,81.924133,-1.797914,-122.58694,2347.5083,0
17000000000,11.58367,0,-1.6722002,81.589264,-1.8142781,-122.86951,3886.043,0
17100000000,7.8275719,0,-1.6461781,81.475418,-1.7055494,-123.40205,1468.5519,0
17200000000,12.720071,0,-1.7131317,81.450699,-1.6606811,-123.24931,5135.0664,0
17300000000,11.649303,0,-1.787315,80.745743,-1.8087416,-123.75111,3949.6333,0
17400000000,7.466136,0,-1.818819,80.574844,-1.762665,-124.16561,1328.1233,0
17500000000,13.354135,0,-1.8910679,80.372093,-1.7929242,-124.15602,5987.8579,0
17600000000,11.05729,0,-1.9032781,79.993439,-1.7878343,-124.68474,3409.3638,0
17700000000,8.5651722,0,-1.9854411,80.826988,-1.6644379,-122.96889,1794.0837,0
17800000000,13.009812,0,-1.9985657,79.598236,-1.7506578,-124.83712,5509.3486,0
17900000000,9.7391071,0,-1.9837731,78.892227,-1.77473,-125.38271,2440.9185,0
18000000000,10.257669,0,-2.0636096,79.001068,-1.7511903,-125.73545,2787.2654,0
END

